Language model created by QuickLM on Sun Apr  2 02:02:19 EDT 2017
Copyright (c) 1996-2010 Carnegie Mellon University and Alexander I. Rudnicky

The model is in standard ARPA format, designed by Doug Paul while he was at MITRE.

The code that was used to produce this language model is available in Open Source.
Please visit http://www.speech.cs.cmu.edu/tools/ for more information

The (fixed) discount mass is 0.5. The backoffs are computed using the ratio method.
This model based on a corpus of 90 sentences and 145 words

\data\
ngram 1=145
ngram 2=278
ngram 3=222

\1-grams:
-0.9553 </s> -0.3010
-0.9553 <s> -0.2201
-2.6085 A -0.2978
-2.9096 ABOUT -0.3005
-2.9096 ACTIONS -0.2500
-2.9096 ALIVE -0.2500
-2.9096 ALL -0.2994
-2.9096 ALRIGHT -0.2500
-2.6085 ALWAYS -0.2482
-2.9096 ANYTHING -0.2500
-2.1314 ARE -0.2390
-2.9096 ASK -0.3005
-2.9096 AT -0.2978
-2.9096 AWAY -0.2500
-2.6085 BE -0.2494
-2.9096 BOOK -0.2500
-2.9096 BORN -0.2500
-2.6085 BOY -0.2500
-2.9096 BRING -0.2983
-2.9096 BUT -0.2500
-2.4324 CAN -0.2886
-2.9096 CHIK -0.2500
-2.9096 CLEVER -0.3000
-2.9096 CORRECT -0.2500
-2.9096 COULD -0.2913
-2.6085 CREATED -0.2907
-2.9096 DEFINE -0.2978
-2.9096 DID -0.2913
-2.3075 DO -0.2366
-2.9096 DOING -0.2994
-2.9096 DON'T -0.2994
-2.9096 DONE -0.2500
-2.9096 ELSE -0.2500
-2.9096 EVENING -0.2500
-2.9096 EVERY -0.3000
-2.9096 FOR -0.3005
-2.9096 FUNCTIONS -0.2500
-2.9096 GO -0.3005
-2.6085 GOING -0.2978
-2.9096 GONNA -0.3005
-2.2106 GOOD -0.2476
-2.9096 GOODBYE -0.2500
-2.9096 GOT -0.2983
-2.6085 HAVE -0.2886
-2.6085 HEAR -0.2470
-2.9096 HELLO -0.2500
-2.6085 HELP -0.2470
-2.9096 HERE -0.2913
-2.9096 HOME -0.3005
-2.6085 HOW -0.2973
-2.6085 I -0.2994
-2.9096 I'VE -0.3005
-2.9096 IF -0.3005
-2.6085 IN -0.3000
-2.0645 IS -0.2913
-2.4324 IT -0.2500
-2.9096 IT'S -0.3000
-2.9096 KEEP -0.3000
-2.9096 KIDDING -0.2500
-2.4324 KNOW -0.2482
-2.9096 LEARN -0.3005
-2.9096 LET'S -0.3005
-2.9096 LIKE -0.2994
-2.9096 LISTENING -0.2500
-2.9096 MAKE -0.2500
-2.9096 MAYBE -0.2913
-2.2106 ME -0.2464
-2.9096 MEETING -0.2500
-2.9096 MIND -0.2500
-2.9096 MUCH -0.2500
-2.9096 NAME -0.2500
-2.9096 NECESSARY -0.2500
-2.6085 NEED -0.2983
-2.9096 NEGATIVE -0.3000
-2.9096 NIGHT -0.2500
-2.9096 NO -0.2500
-2.3075 NOT -0.2973
-2.9096 NOTICE -0.2994
-2.9096 NOW -0.2500
-2.9096 OFF -0.2500
-2.9096 OLD -0.2978
-2.9096 ON -0.2500
-2.9096 PERFORM -0.3005
-2.9096 PLEASE -0.2500
-2.9096 POINT -0.2500
-2.9096 POSITIVE -0.3000
-2.9096 PROBABLY -0.2989
-2.9096 PURPOSE -0.2500
-2.9096 QUESTIONS -0.3005
-2.9096 RANDOM -0.3005
-2.9096 RAW -0.2500
-2.6085 REACTION -0.2500
-2.9096 REMEMBER -0.2983
-2.9096 ROBOY -0.2500
-2.9096 ROW -0.2500
-2.9096 SAME -0.2500
-2.9096 SAY -0.3005
-2.9096 SEE -0.2500
-2.9096 SHIK -0.2500
-2.6085 SHOULD -0.2994
-2.9096 SIGN -0.2500
-2.9096 SOMEBODY -0.2500
-2.4324 SOMETHING -0.2488
-2.9096 SPECIAL -0.3005
-2.9096 STAY -0.3000
-2.9096 STEP -0.3005
-2.9096 STOP -0.3005
-2.9096 STRONG -0.3000
-2.9096 SUPPOSE -0.2500
-2.9096 TALK -0.3005
-2.9096 TELL -0.2983
-2.9096 THANK -0.2913
-2.6085 THAT -0.2458
-2.4324 THE -0.2983
-2.9096 THERE -0.2500
-2.9096 THEY -0.3000
-2.9096 THING -0.2500
-2.9096 THINGS -0.2500
-2.4324 THIS -0.2500
-2.6085 TIME -0.2500
-2.2106 TO -0.2452
-2.9096 TODAY -0.2500
-2.9096 TRIED -0.2500
-2.9096 TUF -0.2500
-2.9096 TURN -0.3005
-2.9096 UNDERSTAND -0.2500
-2.9096 UNTILL -0.3005
-2.9096 USE -0.2500
-2.9096 VERY -0.3005
-2.9096 WAS -0.2913
-2.6085 WE -0.2994
-2.9096 WEEKEND -0.2500
-2.9096 WELL -0.3005
-2.1314 WHAT -0.2409
-2.9096 WHAT'S -0.3000
-2.9096 WHEN -0.2500
-2.9096 WHERE -0.3005
-2.6085 WHO -0.2962
-2.9096 WHY -0.2973
-2.9096 WORDS -0.2500
-2.9096 WORK -0.2983
-2.9096 WRONG -0.2500
-2.9096 YES -0.2500
-1.6543 YOU -0.2347
-2.6085 YOUR -0.3000

\2-grams:
-2.2553 <s> ABOUT 0.0000
-2.2553 <s> ALIVE 0.0000
-2.2553 <s> ALL 0.0000
-2.2553 <s> ALRIGHT 0.0000
-2.2553 <s> ALWAYS -0.1761
-1.9542 <s> ARE -0.1249
-2.2553 <s> ASK 0.0000
-2.2553 <s> AT 0.0000
-2.2553 <s> BRING 0.0000
-2.2553 <s> CAN -0.2218
-2.2553 <s> CHIK 0.0000
-2.2553 <s> CLEVER 0.0000
-2.2553 <s> CORRECT 0.0000
-2.2553 <s> COULD 0.0000
-2.2553 <s> CREATED -0.1761
-2.2553 <s> DID 0.0000
-1.9542 <s> DO -0.1761
-2.2553 <s> DOING 0.0000
-2.2553 <s> EVERY 0.0000
-2.2553 <s> GO 0.0000
-1.9542 <s> GOOD -0.2041
-2.2553 <s> GOODBYE 0.0000
-1.9542 <s> HAVE 0.0000
-2.2553 <s> HELLO 0.0000
-2.2553 <s> HELP -0.1761
-2.2553 <s> HERE 0.0000
-1.9542 <s> HOW 0.0000
-1.9542 <s> I 0.0000
-2.2553 <s> I'VE 0.0000
-2.2553 <s> IF 0.0000
-1.7782 <s> IS -0.1963
-2.2553 <s> IT'S 0.0000
-2.2553 <s> KNOW -0.2218
-2.2553 <s> LEARN 0.0000
-2.2553 <s> LET'S 0.0000
-2.2553 <s> LIKE 0.0000
-2.2553 <s> MAYBE 0.0000
-2.2553 <s> NEGATIVE 0.0000
-2.2553 <s> NO 0.0000
-1.9542 <s> NOT -0.1761
-2.2553 <s> NOTICE 0.0000
-2.2553 <s> PERFORM 0.0000
-2.2553 <s> PLEASE 0.0000
-2.2553 <s> POSITIVE 0.0000
-2.2553 <s> PROBABLY 0.0000
-2.2553 <s> RANDOM 0.0000
-2.2553 <s> ROBOY 0.0000
-2.2553 <s> SAY 0.0000
-2.2553 <s> SHIK 0.0000
-2.2553 <s> SHOULD -0.1761
-2.2553 <s> SOMETHING -0.2218
-2.2553 <s> SPECIAL 0.0000
-2.2553 <s> STAY 0.0000
-2.2553 <s> STEP 0.0000
-2.2553 <s> STOP 0.0000
-2.2553 <s> STRONG 0.0000
-2.2553 <s> TELL 0.0000
-2.2553 <s> THANK 0.0000
-2.2553 <s> THAT -0.1761
-2.2553 <s> TO -0.2553
-2.2553 <s> TUF 0.0000
-2.2553 <s> TURN 0.0000
-2.2553 <s> UNTILL 0.0000
-1.9542 <s> WE 0.0000
-2.2553 <s> WELL 0.0000
-1.7782 <s> WHAT -0.1761
-2.2553 <s> WHAT'S 0.0000
-2.2553 <s> WHERE 0.0000
-1.9542 <s> WHO 0.0000
-2.2553 <s> WHY 0.0000
-2.2553 <s> WRONG 0.0000
-2.2553 <s> YES 0.0000
-1.6532 <s> YOU -0.2499
-2.2553 <s> YOUR -0.1761
-0.6021 A BOOK 0.0000
-0.6021 A GOOD -0.2553
-0.3010 ABOUT MEETING 0.0000
-0.3010 ACTIONS </s> -0.3010
-0.3010 ALIVE </s> -0.3010
-0.3010 ALL THE -0.2218
-0.3010 ALRIGHT </s> -0.3010
-0.6021 ALWAYS </s> -0.3010
-0.6021 ALWAYS CAN -0.2218
-0.3010 ANYTHING </s> -0.3010
-0.7782 ARE </s> -0.3010
-0.4771 ARE YOU -0.2218
-0.3010 ASK QUESTIONS 0.0000
-0.3010 AT WHAT -0.2632
-0.3010 AWAY </s> -0.3010
-0.6021 BE </s> -0.3010
-0.6021 BE THERE 0.0000
-0.3010 BOOK </s> -0.3010
-0.3010 BORN </s> -0.3010
-0.3010 BOY </s> -0.3010
-0.3010 BRING ME -0.2553
-0.3010 BUT </s> -0.3010
-0.7782 CAN DO -0.2430
-0.7782 CAN MAKE 0.0000
-0.7782 CAN YOU -0.2888
-0.3010 CHIK </s> -0.3010
-0.3010 CLEVER BOY 0.0000
-0.3010 CORRECT </s> -0.3010
-0.3010 COULD YOU -0.2888
-0.6021 CREATED FOR 0.0000
-0.6021 CREATED YOU -0.2361
-0.3010 DEFINE WHAT -0.2218
-0.3010 DID YOU -0.2888
-0.9031 DO </s> -0.3010
-0.9031 DO IT 0.0000
-0.9031 DO REMEMBER 0.0000
-0.9031 DO YOU -0.2361
-0.3010 DOING SOMETHING -0.1249
-0.3010 DON'T KNOW -0.1249
-0.3010 DONE </s> -0.3010
-0.3010 ELSE </s> -0.3010
-0.3010 EVENING </s> -0.3010
-0.3010 EVERY TIME 0.0000
-0.3010 FOR TODAY 0.0000
-0.3010 FUNCTIONS </s> -0.3010
-0.3010 GO HOME 0.0000
-0.6021 GOING ON 0.0000
-0.6021 GOING TO -0.2553
-0.3010 GONNA USE 0.0000
-1.0000 GOOD </s> -0.3010
-1.0000 GOOD EVENING 0.0000
-1.0000 GOOD NIGHT 0.0000
-1.0000 GOOD SIGN 0.0000
-1.0000 GOOD THING 0.0000
-0.3010 GOODBYE </s> -0.3010
-0.3010 GOT GOOD -0.2553
-0.6021 HAVE TO -0.2553
-0.6021 HAVE YOU -0.2888
-0.6021 HEAR </s> -0.3010
-0.6021 HEAR ME -0.1461
-0.3010 HELLO </s> -0.3010
-0.6021 HELP </s> -0.3010
-0.6021 HELP ME -0.1461
-0.3010 HERE YOU -0.2888
-0.3010 HOME NOW 0.0000
-0.6021 HOW ARE -0.1249
-0.6021 HOW OLD 0.0000
-0.6021 I NEED 0.0000
-0.6021 I SUPPOSE 0.0000
-0.3010 I'VE GOT 0.0000
-0.3010 IF SOMEBODY 0.0000
-0.6021 IN MIND 0.0000
-0.6021 IN ROW 0.0000
-1.1461 IS A -0.1761
-0.8451 IS IT 0.0000
-1.1461 IS NECESSARY 0.0000
-1.1461 IS NOT -0.2430
-1.1461 IS WHAT -0.2218
-1.1461 IS YOUR -0.1761
-0.3010 IT </s> -0.3010
-0.3010 IT'S GOING -0.1761
-0.3010 KEEP IN -0.1761
-0.3010 KIDDING </s> -0.3010
-0.4771 KNOW </s> -0.3010
-0.7782 KNOW THIS 0.0000
-0.3010 LEARN THINGS 0.0000
-0.3010 LET'S DEFINE 0.0000
-0.3010 LIKE THIS 0.0000
-0.3010 LISTENING </s> -0.3010
-0.3010 MAKE </s> -0.3010
-0.3010 MAYBE YOU -0.2888
-0.5229 ME </s> -0.3010
-1.0000 ME SOMETHING -0.1249
-1.0000 ME THE -0.2218
-0.3010 MEETING </s> -0.3010
-0.3010 MIND </s> -0.3010
-0.3010 MUCH </s> -0.3010
-0.3010 NAME </s> -0.3010
-0.3010 NECESSARY </s> -0.3010
-0.3010 NEED TO -0.2041
-0.3010 NEGATIVE REACTION 0.0000
-0.3010 NIGHT </s> -0.3010
-0.3010 NO </s> -0.3010
-0.9031 NOT ALWAYS -0.1761
-0.9031 NOT BUT 0.0000
-0.9031 NOT RAW 0.0000
-0.9031 NOT THE -0.2218
-0.3010 NOTICE THIS 0.0000
-0.3010 NOW </s> -0.3010
-0.3010 OFF </s> -0.3010
-0.3010 OLD ARE -0.1249
-0.3010 ON </s> -0.3010
-0.3010 PERFORM ACTIONS 0.0000
-0.3010 PLEASE </s> -0.3010
-0.3010 POINT </s> -0.3010
-0.3010 POSITIVE REACTION 0.0000
-0.3010 PROBABLY NOT -0.2430
-0.3010 PURPOSE </s> -0.3010
-0.3010 QUESTIONS WHEN 0.0000
-0.3010 RANDOM WORDS 0.0000
-0.3010 RAW </s> -0.3010
-0.3010 REACTION </s> -0.3010
-0.3010 REMEMBER ME -0.1461
-0.3010 ROBOY </s> -0.3010
-0.3010 ROW </s> -0.3010
-0.3010 SAME </s> -0.3010
-0.3010 SAY ANYTHING 0.0000
-0.3010 SEE </s> -0.3010
-0.3010 SHIK </s> -0.3010
-0.6021 SHOULD BE -0.1761
-0.6021 SHOULD WORK 0.0000
-0.3010 SIGN </s> -0.3010
-0.3010 SOMEBODY </s> -0.3010
-0.4771 SOMETHING </s> -0.3010
-0.7782 SOMETHING THAT -0.1761
-0.3010 SPECIAL PURPOSE 0.0000
-0.3010 STAY IN -0.1761
-0.3010 STEP AWAY 0.0000
-0.3010 STOP LISTENING 0.0000
-0.3010 STRONG BOY 0.0000
-0.3010 SUPPOSE </s> -0.3010
-0.3010 TALK THEY 0.0000
-0.3010 TELL ME -0.2553
-0.3010 THANK YOU -0.2888
-0.6021 THAT </s> -0.3010
-0.6021 THAT IS -0.2688
-0.7782 THE A -0.1761
-0.7782 THE SAME 0.0000
-0.7782 THE TIME 0.0000
-0.3010 THERE </s> -0.3010
-0.3010 THEY HEAR -0.1761
-0.3010 THING </s> -0.3010
-0.3010 THINGS </s> -0.3010
-0.3010 THIS </s> -0.3010
-0.3010 TIME </s> -0.3010
-1.0000 TO </s> -0.3010
-1.0000 TO BE -0.1761
-1.0000 TO DO -0.2430
-1.0000 TO KEEP 0.0000
-1.0000 TO UNDERSTAND 0.0000
-0.3010 TODAY </s> -0.3010
-0.3010 TRIED </s> -0.3010
-0.3010 TUF </s> -0.3010
-0.3010 TURN OFF 0.0000
-0.3010 UNDERSTAND </s> -0.3010
-0.3010 UNTILL WEEKEND 0.0000
-0.3010 USE </s> -0.3010
-0.3010 VERY MUCH 0.0000
-0.3010 WAS YOU -0.2888
-0.6021 WE GONNA 0.0000
-0.6021 WE NEED 0.0000
-0.3010 WEEKEND </s> -0.3010
-0.3010 WELL DONE 0.0000
-0.7782 WHAT </s> -0.3010
-1.0792 WHAT ARE -0.2218
-1.0792 WHAT ELSE 0.0000
-1.0792 WHAT IS -0.2688
-1.0792 WHAT POINT 0.0000
-0.3010 WHAT'S GOING -0.1761
-0.3010 WHEN </s> -0.3010
-0.3010 WHERE WAS 0.0000
-0.6021 WHO CREATED -0.1761
-0.6021 WHO IS -0.2341
-0.3010 WHY IS -0.2341
-0.3010 WORDS </s> -0.3010
-0.3010 WORK GOOD -0.2553
-0.3010 WRONG </s> -0.3010
-0.3010 YES </s> -0.3010
-0.8573 YOU </s> -0.3010
-1.5563 YOU ARE -0.2218
-1.5563 YOU BORN 0.0000
-1.5563 YOU CAN -0.2218
-1.5563 YOU DON'T 0.0000
-1.5563 YOU HEAR -0.1761
-1.5563 YOU HELP -0.1761
-1.5563 YOU KIDDING 0.0000
-1.5563 YOU KNOW -0.1249
-1.5563 YOU SEE 0.0000
-1.5563 YOU SHOULD -0.1761
-1.5563 YOU TALK 0.0000
-1.5563 YOU TRIED 0.0000
-1.5563 YOU VERY 0.0000
-0.6021 YOUR FUNCTIONS 0.0000
-0.6021 YOUR NAME 0.0000

\3-grams:
-0.3010 <s> ABOUT MEETING
-0.3010 <s> ALIVE </s>
-0.3010 <s> ALL THE
-0.3010 <s> ALRIGHT </s>
-0.3010 <s> ALWAYS CAN
-0.3010 <s> ARE YOU
-0.3010 <s> ASK QUESTIONS
-0.3010 <s> AT WHAT
-0.3010 <s> BRING ME
-0.3010 <s> CAN YOU
-0.3010 <s> CHIK </s>
-0.3010 <s> CLEVER BOY
-0.3010 <s> CORRECT </s>
-0.3010 <s> COULD YOU
-0.3010 <s> CREATED FOR
-0.3010 <s> DID YOU
-0.6021 <s> DO REMEMBER
-0.6021 <s> DO YOU
-0.3010 <s> DOING SOMETHING
-0.3010 <s> EVERY TIME
-0.3010 <s> GO HOME
-0.6021 <s> GOOD EVENING
-0.6021 <s> GOOD NIGHT
-0.3010 <s> GOODBYE </s>
-0.6021 <s> HAVE TO
-0.6021 <s> HAVE YOU
-0.3010 <s> HELLO </s>
-0.3010 <s> HELP </s>
-0.3010 <s> HERE YOU
-0.6021 <s> HOW ARE
-0.6021 <s> HOW OLD
-0.6021 <s> I NEED
-0.6021 <s> I SUPPOSE
-0.3010 <s> I'VE GOT
-0.3010 <s> IF SOMEBODY
-0.7782 <s> IS A
-0.7782 <s> IS NECESSARY
-0.7782 <s> IS NOT
-0.3010 <s> IT'S GOING
-0.3010 <s> KNOW THIS
-0.3010 <s> LEARN THINGS
-0.3010 <s> LET'S DEFINE
-0.3010 <s> LIKE THIS
-0.3010 <s> MAYBE YOU
-0.3010 <s> NEGATIVE REACTION
-0.3010 <s> NO </s>
-0.6021 <s> NOT RAW
-0.6021 <s> NOT THE
-0.3010 <s> NOTICE THIS
-0.3010 <s> PERFORM ACTIONS
-0.3010 <s> PLEASE </s>
-0.3010 <s> POSITIVE REACTION
-0.3010 <s> PROBABLY NOT
-0.3010 <s> RANDOM WORDS
-0.3010 <s> ROBOY </s>
-0.3010 <s> SAY ANYTHING
-0.3010 <s> SHIK </s>
-0.3010 <s> SHOULD BE
-0.3010 <s> SOMETHING THAT
-0.3010 <s> SPECIAL PURPOSE
-0.3010 <s> STAY IN
-0.3010 <s> STEP AWAY
-0.3010 <s> STOP LISTENING
-0.3010 <s> STRONG BOY
-0.3010 <s> TELL ME
-0.3010 <s> THANK YOU
-0.3010 <s> THAT IS
-0.3010 <s> TO KEEP
-0.3010 <s> TUF </s>
-0.3010 <s> TURN OFF
-0.3010 <s> UNTILL WEEKEND
-0.6021 <s> WE GONNA
-0.6021 <s> WE NEED
-0.3010 <s> WELL DONE
-0.7782 <s> WHAT ARE
-0.7782 <s> WHAT ELSE
-0.7782 <s> WHAT IS
-0.3010 <s> WHAT'S GOING
-0.3010 <s> WHERE WAS
-0.6021 <s> WHO CREATED
-0.6021 <s> WHO IS
-0.3010 <s> WHY IS
-0.3010 <s> WRONG </s>
-0.3010 <s> YES </s>
-0.9031 <s> YOU CAN
-0.9031 <s> YOU DON'T
-0.9031 <s> YOU SHOULD
-0.9031 <s> YOU TALK
-0.3010 <s> YOUR FUNCTIONS
-0.3010 A BOOK </s>
-0.3010 A GOOD SIGN
-0.3010 ABOUT MEETING </s>
-0.3010 ALL THE TIME
-0.3010 ALWAYS CAN DO
-0.4260 ARE YOU </s>
-0.9031 ARE YOU KIDDING
-0.3010 ASK QUESTIONS WHEN
-0.3010 AT WHAT POINT
-0.3010 BE THERE </s>
-0.3010 BRING ME THE
-0.3010 CAN DO </s>
-0.3010 CAN MAKE </s>
-0.3010 CAN YOU HEAR
-0.3010 CLEVER BOY </s>
-0.3010 COULD YOU HELP
-0.3010 CREATED FOR TODAY
-0.3010 CREATED YOU </s>
-0.3010 DEFINE WHAT </s>
-0.3010 DID YOU SEE
-0.3010 DO IT </s>
-0.3010 DO REMEMBER ME
-0.3010 DO YOU </s>
-0.3010 DOING SOMETHING </s>
-0.3010 DON'T KNOW </s>
-0.3010 EVERY TIME </s>
-0.3010 FOR TODAY </s>
-0.3010 GO HOME NOW
-0.3010 GOING ON </s>
-0.3010 GOING TO BE
-0.3010 GONNA USE </s>
-0.3010 GOOD EVENING </s>
-0.3010 GOOD NIGHT </s>
-0.3010 GOOD SIGN </s>
-0.3010 GOOD THING </s>
-0.3010 GOT GOOD THING
-0.3010 HAVE TO UNDERSTAND
-0.3010 HAVE YOU TRIED
-0.3010 HEAR ME </s>
-0.3010 HELP ME </s>
-0.3010 HERE YOU ARE
-0.3010 HOME NOW </s>
-0.3010 HOW ARE YOU
-0.3010 HOW OLD ARE
-0.3010 I NEED TO
-0.3010 I SUPPOSE </s>
-0.3010 I'VE GOT GOOD
-0.3010 IF SOMEBODY </s>
-0.3010 IN MIND </s>
-0.3010 IN ROW </s>
-0.3010 IS A GOOD
-0.3010 IS IT </s>
-0.3010 IS NECESSARY </s>
-0.3010 IS NOT ALWAYS
-0.3010 IS WHAT </s>
-0.3010 IS YOUR NAME
-0.3010 IT'S GOING TO
-0.3010 KEEP IN MIND
-0.3010 KNOW THIS </s>
-0.3010 LEARN THINGS </s>
-0.3010 LET'S DEFINE WHAT
-0.3010 LIKE THIS </s>
-0.3010 MAYBE YOU KNOW
-0.3010 ME SOMETHING </s>
-0.3010 ME THE A
-0.6021 NEED TO </s>
-0.6021 NEED TO DO
-0.3010 NEGATIVE REACTION </s>
-0.3010 NOT ALWAYS </s>
-0.3010 NOT BUT </s>
-0.3010 NOT RAW </s>
-0.3010 NOT THE SAME
-0.3010 NOTICE THIS </s>
-0.3010 OLD ARE YOU
-0.3010 PERFORM ACTIONS </s>
-0.3010 POSITIVE REACTION </s>
-0.3010 PROBABLY NOT BUT
-0.3010 QUESTIONS WHEN </s>
-0.3010 RANDOM WORDS </s>
-0.3010 REMEMBER ME </s>
-0.3010 SAY ANYTHING </s>
-0.3010 SHOULD BE THERE
-0.3010 SHOULD WORK GOOD
-0.3010 SOMETHING THAT </s>
-0.3010 SPECIAL PURPOSE </s>
-0.3010 STAY IN ROW
-0.3010 STEP AWAY </s>
-0.3010 STOP LISTENING </s>
-0.3010 STRONG BOY </s>
-0.3010 TALK THEY HEAR
-0.3010 TELL ME SOMETHING
-0.3010 THANK YOU VERY
-0.3010 THAT IS WHAT
-0.3010 THE A BOOK
-0.3010 THE SAME </s>
-0.3010 THE TIME </s>
-0.3010 THEY HEAR </s>
-0.3010 TO BE </s>
-0.3010 TO DO IT
-0.3010 TO KEEP IN
-0.3010 TO UNDERSTAND </s>
-0.3010 TURN OFF </s>
-0.3010 UNTILL WEEKEND </s>
-0.3010 VERY MUCH </s>
-0.3010 WAS YOU BORN
-0.3010 WE GONNA USE
-0.3010 WE NEED TO
-0.3010 WELL DONE </s>
-0.3010 WHAT ARE </s>
-0.3010 WHAT ELSE </s>
-0.3010 WHAT IS YOUR
-0.3010 WHAT POINT </s>
-0.3010 WHAT'S GOING ON
-0.3010 WHERE WAS YOU
-0.3010 WHO CREATED YOU
-0.3010 WHO IS IT
-0.3010 WHY IS IT
-0.3010 WORK GOOD </s>
-0.3010 YOU ARE </s>
-0.3010 YOU BORN </s>
-0.3010 YOU CAN MAKE
-0.3010 YOU DON'T KNOW
-0.3010 YOU HEAR ME
-0.3010 YOU HELP ME
-0.3010 YOU KIDDING </s>
-0.3010 YOU KNOW </s>
-0.3010 YOU SEE </s>
-0.3010 YOU SHOULD WORK
-0.3010 YOU TALK THEY
-0.3010 YOU TRIED </s>
-0.3010 YOU VERY MUCH
-0.3010 YOUR FUNCTIONS </s>
-0.3010 YOUR NAME </s>

\end\
